<?xml version="1.0" encoding="UTF-8"?>
<BIF VERSION="0.3"  xmlns="http://www.cs.ubc.ca/labs/lci/fopi/ve/XMLBIFv0_3"
	xmlns:xsi="http://www.w3.org/2001/XMLSchema-instance"
	xsi:schemaLocation="http://www.cs.ubc.ca/labs/lci/fopi/ve/XMLBIFv0_3 http://www.cs.ubc.ca/labs/lci/fopi/ve/XMLBIFv0_3/XMLBIFv0_3.xsd">
<NETWORK>
<NAME>Nuclear Power Station</NAME>
<PROPERTY>detailed = </PROPERTY>
<PROPERTY>short = </PROPERTY>

<VARIABLE TYPE="nature">
	<NAME>WaterLeak</NAME>
	<OUTCOME>T</OUTCOME>
	<OUTCOME>F</OUTCOME>
	<PROPERTY>position = (7393.9912109375, 5137.55908203125)</PROPERTY>
</VARIABLE>

<VARIABLE TYPE="nature">
	<NAME>WaterLeakWarning</NAME>
	<OUTCOME>T</OUTCOME>
	<OUTCOME>F</OUTCOME>
	<PROPERTY>position = (7046.93994140625, 5322.23388671875)</PROPERTY>
</VARIABLE>

<VARIABLE TYPE="nature">
	<NAME>IcyWeather</NAME>
	<OUTCOME>T</OUTCOME>
	<OUTCOME>F</OUTCOME>
	<PROPERTY>position = (7640.9912109375, 5056.82470703125)</PROPERTY>
</VARIABLE>

<VARIABLE TYPE="nature">
	<NAME>PumpFailure</NAME>
	<OUTCOME>T</OUTCOME>
	<OUTCOME>F</OUTCOME>
	<PROPERTY>position = (7341.28125, 5230.23779296875)</PROPERTY>
</VARIABLE>

<VARIABLE TYPE="nature">
	<NAME>PumpFailureWarning</NAME>
	<OUTCOME>T</OUTCOME>
	<OUTCOME>F</OUTCOME>
	<PROPERTY>position = (7242.9931640625, 5320.9130859375)</PROPERTY>
</VARIABLE>

<VARIABLE TYPE="nature">
	<NAME>Meltdown</NAME>
	<OUTCOME>T</OUTCOME>
	<OUTCOME>F</OUTCOME>
	<PROPERTY>position = (7501.39404296875, 5665.306640625)</PROPERTY>
</VARIABLE>

<VARIABLE TYPE="nature">
	<NAME>Battery</NAME>
	<OUTCOME>T</OUTCOME>
	<OUTCOME>F</OUTCOME>
	<PROPERTY>position = (7838.875, 5133.0927734375)</PROPERTY>
</VARIABLE>

<VARIABLE TYPE="nature">
	<NAME>Radio</NAME>
	<OUTCOME>T</OUTCOME>
	<OUTCOME>F</OUTCOME>
	<PROPERTY>position = (7747.216796875, 5218.587890625)</PROPERTY>
</VARIABLE>

<VARIABLE TYPE="nature">
	<NAME>Ignition</NAME>
	<OUTCOME>T</OUTCOME>
	<OUTCOME>F</OUTCOME>
	<PROPERTY>position = (7837.447265625, 5282.22802734375)</PROPERTY>
</VARIABLE>

<VARIABLE TYPE="nature">
	<NAME>Starts</NAME>
	<OUTCOME>T</OUTCOME>
	<OUTCOME>F</OUTCOME>
	<PROPERTY>position = (7839.623046875, 5461.880859375)</PROPERTY>
</VARIABLE>

<VARIABLE TYPE="nature">
	<NAME>Gas</NAME>
	<OUTCOME>T</OUTCOME>
	<OUTCOME>F</OUTCOME>
	<PROPERTY>position = (7952.0068359375, 5280.4697265625)</PROPERTY>
</VARIABLE>

<VARIABLE TYPE="nature">
	<NAME>Moves</NAME>
	<OUTCOME>T</OUTCOME>
	<OUTCOME>F</OUTCOME>
	<PROPERTY>position = (7645.380859375, 5529.41455078125)</PROPERTY>
</VARIABLE>

<VARIABLE TYPE="nature">
	<NAME>Survives</NAME>
	<OUTCOME>T</OUTCOME>
	<OUTCOME>F</OUTCOME>
	<PROPERTY>position = (7558.77294921875, 5856.1748046875)</PROPERTY>
</VARIABLE>

<VARIABLE TYPE="nature">
	<NAME>AlarmIsActive</NAME>
	<OUTCOME>T</OUTCOME>
	<OUTCOME>F</OUTCOME>
	<OBS>T</OBS>
	<PROPERTY>position = (7170.0, 5413.0)</PROPERTY>
</VARIABLE>

<VARIABLE TYPE="nature">
	<NAME>Mr.H.S_Sleeps</NAME>
	<OUTCOME>T</OUTCOME>
	<OUTCOME>F</OUTCOME>
	<PROPERTY>position = (6833.0, 5520.0)</PROPERTY>
</VARIABLE>

<VARIABLE TYPE="nature">
	<NAME>Mr.H.S_SolvePumpFailure</NAME>
	<OUTCOME>T</OUTCOME>
	<OUTCOME>F</OUTCOME>
	<PROPERTY>position = (7169.0, 5589.0)</PROPERTY>
</VARIABLE>

<VARIABLE TYPE="nature">
	<NAME>Mr.H.S_SolveWaterLeak</NAME>
	<OUTCOME>T</OUTCOME>
	<OUTCOME>F</OUTCOME>
	<PROPERTY>position = (7372.0, 5586.0)</PROPERTY>
</VARIABLE>

<VARIABLE TYPE="nature">
	<NAME>Mr.H.S_HasTimeToReact</NAME>
	<OUTCOME>T</OUTCOME>
	<OUTCOME>F</OUTCOME>
	<OBS>F</OBS>
	<PROPERTY>position = (7271.0, 5512.0)</PROPERTY>
</VARIABLE>

<DEFINITION>
	<FOR>WaterLeak</FOR>
	<GIVEN>IcyWeather</GIVEN>
	<TABLE>0.2 0.8 0.1 0.9</TABLE>
</DEFINITION>

<DEFINITION>
	<FOR>WaterLeakWarning</FOR>
	<GIVEN>WaterLeak</GIVEN>
	<TABLE>0.9 0.1 0.05 0.95</TABLE>
</DEFINITION>

<DEFINITION>
	<FOR>IcyWeather</FOR>
	<TABLE>0.05 0.95</TABLE>
</DEFINITION>

<DEFINITION>
	<FOR>PumpFailure</FOR>
	<TABLE>0.1 0.9</TABLE>
</DEFINITION>

<DEFINITION>
	<FOR>PumpFailureWarning</FOR>
	<GIVEN>PumpFailure</GIVEN>
	<TABLE>0.9 0.1 0.05 0.95</TABLE>
</DEFINITION>

<DEFINITION>
	<FOR>Meltdown</FOR>
	<GIVEN>WaterLeak</GIVEN>
	<GIVEN>PumpFailure</GIVEN>
	<GIVEN>Mr.H.S_SolvePumpFailure</GIVEN>
	<GIVEN>Mr.H.S_SolveWaterLeak</GIVEN>
	<TABLE>0.001 0.999 0.1 0.9 0.15 0.85 0.2 0.8 0.001 0.999 0.1 0.9 0.001 0.999 0.1 0.9 0.001 0.999 0.001 0.999 0.15 0.85 0.15 0.85 0.001 0.999 0.001 0.999 0.001 0.999 0.001 0.999</TABLE>
</DEFINITION>

<DEFINITION>
	<FOR>Battery</FOR>
	<GIVEN>IcyWeather</GIVEN>
	<TABLE>0.8 0.2 0.95 0.05</TABLE>
</DEFINITION>

<DEFINITION>
	<FOR>Radio</FOR>
	<GIVEN>Battery</GIVEN>
	<TABLE>0.95 0.05 0.0 1.0</TABLE>
</DEFINITION>

<DEFINITION>
	<FOR>Ignition</FOR>
	<GIVEN>Battery</GIVEN>
	<TABLE>0.95 0.05 0.0 1.0</TABLE>
</DEFINITION>

<DEFINITION>
	<FOR>Starts</FOR>
	<GIVEN>Ignition</GIVEN>
	<GIVEN>Gas</GIVEN>
	<TABLE>0.95 0.05 0.0 1.0 0.0 1.0 0.0 1.0</TABLE>
</DEFINITION>

<DEFINITION>
	<FOR>Gas</FOR>
	<TABLE>0.95 0.05</TABLE>
</DEFINITION>

<DEFINITION>
	<FOR>Moves</FOR>
	<GIVEN>Starts</GIVEN>
	<TABLE>0.95 0.05 0.0 1.0</TABLE>
</DEFINITION>

<DEFINITION>
	<FOR>Survives</FOR>
	<GIVEN>Meltdown</GIVEN>
	<GIVEN>Moves</GIVEN>
	<TABLE>0.8 0.2 0.0 1.0 1.0 0.0 1.0 0.0</TABLE>
</DEFINITION>

<DEFINITION>
	<FOR>AlarmIsActive</FOR>
	<GIVEN>WaterLeakWarning</GIVEN>
	<GIVEN>PumpFailureWarning</GIVEN>
	<TABLE>1.0 0.0 1.0 0.0 1.0 0.0 0.0 1.0</TABLE>
</DEFINITION>

<DEFINITION>
	<FOR>Mr.H.S_Sleeps</FOR>
	<GIVEN>WaterLeakWarning</GIVEN>
	<GIVEN>PumpFailureWarning</GIVEN>
	<TABLE>0.4 0.6 0.2 0.8 0.3 0.7 0.8 0.2</TABLE>
</DEFINITION>

<DEFINITION>
	<FOR>Mr.H.S_SolvePumpFailure</FOR>
	<GIVEN>Mr.H.S_HasTimeToReact</GIVEN>
	<TABLE>0.2 0.8 0.0 1.0</TABLE>
</DEFINITION>

<DEFINITION>
	<FOR>Mr.H.S_SolveWaterLeak</FOR>
	<GIVEN>Mr.H.S_HasTimeToReact</GIVEN>
	<TABLE>0.3 0.7 0.0 1.0</TABLE>
</DEFINITION>

<DEFINITION>
	<FOR>Mr.H.S_HasTimeToReact</FOR>
	<GIVEN>Mr.H.S_Sleeps</GIVEN>
	<TABLE>0.0 1.0 0.8 0.2</TABLE>
</DEFINITION>
</NETWORK>
</BIF>